digraph Tree {
node [shape=box, style="filled, rounded", color="black", fontname=helvetica] ;
edge [fontname=helvetica] ;
0 [label=<hemo &le; 12.979<br/>entropy = 0.954<br/>samples = 400<br/>value = [250, 150]<br/>class = ckd>, fillcolor="#e5813966"] ;
1 [label=<rc &le; 5.294<br/>entropy = 0.108<br/>samples = 211<br/>value = [208, 3]<br/>class = ckd>, fillcolor="#e58139fb"] ;
0 -> 1 [labeldistance=2.5, labelangle=45, headlabel="True"] ;
2 [label=<entropy = 0.0<br/>samples = 190<br/>value = [190, 0]<br/>class = ckd>, fillcolor="#e58139ff"] ;
1 -> 2 ;
3 [label=<sc &le; 1.15<br/>entropy = 0.592<br/>samples = 21<br/>value = [18, 3]<br/>class = ckd>, fillcolor="#e58139d4"] ;
1 -> 3 ;
4 [label=<pcv &le; 37.54<br/>entropy = 0.811<br/>samples = 4<br/>value = [1, 3]<br/>class = notckd>, fillcolor="#399de5aa"] ;
3 -> 4 ;
5 [label=<entropy = 0.0<br/>samples = 1<br/>value = [1, 0]<br/>class = ckd>, fillcolor="#e58139ff"] ;
4 -> 5 ;
6 [label=<entropy = 0.0<br/>samples = 3<br/>value = [0, 3]<br/>class = notckd>, fillcolor="#399de5ff"] ;
4 -> 6 ;
7 [label=<entropy = 0.0<br/>samples = 17<br/>value = [17, 0]<br/>class = ckd>, fillcolor="#e58139ff"] ;
3 -> 7 ;
8 [label=<sg &le; 1.017<br/>entropy = 0.764<br/>samples = 189<br/>value = [42, 147]<br/>class = notckd>, fillcolor="#399de5b6"] ;
0 -> 8 [labeldistance=2.5, labelangle=-45, headlabel="False"] ;
9 [label=<hemo &le; 15.439<br/>entropy = 0.398<br/>samples = 38<br/>value = [35, 3]<br/>class = ckd>, fillcolor="#e58139e9"] ;
8 -> 9 ;
10 [label=<entropy = 0.0<br/>samples = 33<br/>value = [33, 0]<br/>class = ckd>, fillcolor="#e58139ff"] ;
9 -> 10 ;
11 [label=<bu &le; 33.0<br/>entropy = 0.971<br/>samples = 5<br/>value = [2, 3]<br/>class = notckd>, fillcolor="#399de555"] ;
9 -> 11 ;
12 [label=<entropy = 0.0<br/>samples = 2<br/>value = [2, 0]<br/>class = ckd>, fillcolor="#e58139ff"] ;
11 -> 12 ;
13 [label=<entropy = 0.0<br/>samples = 3<br/>value = [0, 3]<br/>class = notckd>, fillcolor="#399de5ff"] ;
11 -> 13 ;
14 [label=<al &le; 0.5<br/>entropy = 0.271<br/>samples = 151<br/>value = [7, 144]<br/>class = notckd>, fillcolor="#399de5f3"] ;
8 -> 14 ;
15 [label=<entropy = 0.0<br/>samples = 142<br/>value = [0, 142]<br/>class = notckd>, fillcolor="#399de5ff"] ;
14 -> 15 ;
16 [label=<pcv &le; 48.5<br/>entropy = 0.764<br/>samples = 9<br/>value = [7, 2]<br/>class = ckd>, fillcolor="#e58139b6"] ;
14 -> 16 ;
17 [label=<entropy = 0.0<br/>samples = 7<br/>value = [7, 0]<br/>class = ckd>, fillcolor="#e58139ff"] ;
16 -> 17 ;
18 [label=<entropy = 0.0<br/>samples = 2<br/>value = [0, 2]<br/>class = notckd>, fillcolor="#399de5ff"] ;
16 -> 18 ;
}